FANN_FLO_2.1
num_layers=4
learning_rate=0.700000
connection_rate=1.000000
network_type=0
learning_momentum=0.000000
training_algorithm=2
train_error_function=1
train_stop_function=0
cascade_output_change_fraction=0.010000
quickprop_decay=-0.000100
quickprop_mu=1.750000
rprop_increase_factor=1.200000
rprop_decrease_factor=0.500000
rprop_delta_min=0.000000
rprop_delta_max=50.000000
rprop_delta_zero=0.100000
cascade_output_stagnation_epochs=12
cascade_candidate_change_fraction=0.010000
cascade_candidate_stagnation_epochs=12
cascade_max_out_epochs=150
cascade_min_out_epochs=50
cascade_max_cand_epochs=150
cascade_min_cand_epochs=50
cascade_num_candidate_groups=2
bit_fail_limit=3.49999994039535522461e-01
cascade_candidate_limit=1.00000000000000000000e+03
cascade_weight_multiplier=4.00000005960464477539e-01
cascade_activation_functions_count=10
cascade_activation_functions=3 5 7 8 10 11 14 15 16 17 
cascade_activation_steepnesses_count=4
cascade_activation_steepnesses=2.50000000000000000000e-01 5.00000000000000000000e-01 7.50000000000000000000e-01 1.00000000000000000000e+00 
layer_sizes=4 5 3 5 
scale_included=0
neurons (num_inputs, activation_function, activation_steepness)=(0, 0, 0.00000000000000000000e+00) (0, 0, 0.00000000000000000000e+00) (0, 0, 0.00000000000000000000e+00) (0, 0, 0.00000000000000000000e+00) (4, 5, 5.00000000000000000000e-01) (4, 5, 5.00000000000000000000e-01) (4, 5, 5.00000000000000000000e-01) (4, 5, 5.00000000000000000000e-01) (0, 5, 0.00000000000000000000e+00) (5, 5, 5.00000000000000000000e-01) (5, 5, 5.00000000000000000000e-01) (0, 5, 0.00000000000000000000e+00) (3, 4, 5.00000000000000000000e-01) (3, 4, 5.00000000000000000000e-01) (3, 4, 5.00000000000000000000e-01) (3, 4, 5.00000000000000000000e-01) (0, 0, 0.00000000000000000000e+00) 
connections (connected_to_neuron, weight)=(0, 2.08970332145690917969e+00) (1, -3.96901592612266540527e-02) (2, -3.65668797492980957031e+00) (3, 3.84964972734451293945e-01) (0, 1.09933125972747802734e+00) (1, 1.65099883079528808594e+00) (2, -1.58576011657714843750e+00) (3, -5.28246879577636718750e-01) (0, -3.66697788238525390625e+00) (1, 4.59605646133422851562e+00) (2, -2.75167942047119140625e+00) (3, 7.31474936008453369141e-01) (0, 8.09743225574493408203e-01) (1, 3.89649367332458496094e+00) (2, -3.61586928367614746094e+00) (3, -2.09007725119590759277e-01) (4, 6.80842161178588867188e+00) (5, -1.30806192755699157715e-01) (6, -6.13255643844604492188e+00) (7, -7.06491112709045410156e-01) (8, 8.33615720272064208984e-01) (4, 3.32844793796539306641e-01) (5, 2.35407752990722656250e+01) (6, 1.30911283493041992188e+01) (7, 3.48098683357238769531e+00) (8, -4.03277873992919921875e-01) (9, 9.92471313476562500000e+00) (10, -5.47189998626708984375e+00) (11, -9.57563877105712890625e+00) (9, 1.14638843536376953125e+01) (10, 8.85219573974609375000e+00) (11, -6.23434019088745117188e+00) (9, -1.17075910568237304688e+01) (10, 7.27677631378173828125e+00) (11, -9.06147670745849609375e+00) (9, -8.79598712921142578125e+00) (10, -8.85263633728027343750e+00) (11, -5.28654909133911132812e+00) 
