FANN_FLO_2.1
num_layers=3
learning_rate=0.700000
connection_rate=1.000000
network_type=0
learning_momentum=0.000000
training_algorithm=2
train_error_function=1
train_stop_function=0
cascade_output_change_fraction=0.010000
quickprop_decay=-0.000100
quickprop_mu=1.750000
rprop_increase_factor=1.200000
rprop_decrease_factor=0.500000
rprop_delta_min=0.000000
rprop_delta_max=50.000000
rprop_delta_zero=0.100000
cascade_output_stagnation_epochs=12
cascade_candidate_change_fraction=0.010000
cascade_candidate_stagnation_epochs=12
cascade_max_out_epochs=150
cascade_min_out_epochs=50
cascade_max_cand_epochs=150
cascade_min_cand_epochs=50
cascade_num_candidate_groups=2
bit_fail_limit=3.49999994039535522461e-01
cascade_candidate_limit=1.00000000000000000000e+03
cascade_weight_multiplier=4.00000005960464477539e-01
cascade_activation_functions_count=10
cascade_activation_functions=3 5 7 8 10 11 14 15 16 17 
cascade_activation_steepnesses_count=4
cascade_activation_steepnesses=2.50000000000000000000e-01 5.00000000000000000000e-01 7.50000000000000000000e-01 1.00000000000000000000e+00 
layer_sizes=4 7 5 
scale_included=0
neurons (num_inputs, activation_function, activation_steepness)=(0, 0, 0.00000000000000000000e+00) (0, 0, 0.00000000000000000000e+00) (0, 0, 0.00000000000000000000e+00) (0, 0, 0.00000000000000000000e+00) (4, 5, 5.00000000000000000000e-01) (4, 5, 5.00000000000000000000e-01) (4, 5, 5.00000000000000000000e-01) (4, 5, 5.00000000000000000000e-01) (4, 5, 5.00000000000000000000e-01) (4, 5, 5.00000000000000000000e-01) (0, 5, 0.00000000000000000000e+00) (7, 4, 5.00000000000000000000e-01) (7, 4, 5.00000000000000000000e-01) (7, 4, 5.00000000000000000000e-01) (7, 4, 5.00000000000000000000e-01) (0, 0, 0.00000000000000000000e+00) 
connections (connected_to_neuron, weight)=(0, -4.95936775207519531250e+00) (1, -4.61884915828704833984e-01) (2, 5.28969192504882812500e+00) (3, -1.51445209980010986328e+00) (0, 7.83350110054016113281e-01) (1, -6.19341325759887695312e+00) (2, 1.63045239448547363281e+00) (3, 6.24627590179443359375e-01) (0, -8.95062148571014404297e-01) (1, -2.77311414480209350586e-01) (2, 9.69384253025054931641e-01) (3, -1.51985692977905273438e+00) (0, 3.71691489219665527344e+00) (1, -4.37134027481079101562e+00) (2, 3.30013704299926757812e+00) (3, 2.63741284608840942383e-01) (0, 1.41400277614593505859e+00) (1, -5.60767710208892822266e-01) (2, 3.29845041036605834961e-01) (3, -9.16349530220031738281e-01) (0, -4.92701721191406250000e+00) (1, 2.81732583045959472656e+00) (2, 2.03025937080383300781e+00) (3, 9.27338898181915283203e-02) (4, -2.08860137939453125000e+02) (5, 7.80864562988281250000e+02) (6, 1.50000000000000000000e+03) (7, 3.72452468872070312500e+01) (8, 1.50000000000000000000e+03) (9, -4.42797241210937500000e+02) (10, 8.14732238769531250000e+02) (4, -2.84687495231628417969e+00) (5, -5.45995826721191406250e+01) (6, 7.74721603393554687500e+01) (7, 3.47468757629394531250e+01) (8, -9.30331878662109375000e+01) (9, -4.90108604431152343750e+01) (10, -1.97163391113281250000e+01) (4, -7.42165756225585937500e+01) (5, -4.83918523788452148438e+00) (6, 2.30611686706542968750e+01) (7, -1.58439397811889648438e+01) (8, 1.21688661575317382812e+01) (9, 7.89263839721679687500e+01) (10, -2.98979568481445312500e+01) (4, 1.50000000000000000000e+03) (5, 1.50000000000000000000e+03) (6, 1.50000000000000000000e+03) (7, 1.50000000000000000000e+03) (8, 1.50000000000000000000e+03) (9, 1.50000000000000000000e+03) (10, 1.50000000000000000000e+03) 
