FANN_FLO_2.1
num_layers=3
learning_rate=0.700000
connection_rate=1.000000
network_type=0
learning_momentum=0.000000
training_algorithm=2
train_error_function=1
train_stop_function=0
cascade_output_change_fraction=0.010000
quickprop_decay=-0.000100
quickprop_mu=1.750000
rprop_increase_factor=1.200000
rprop_decrease_factor=0.500000
rprop_delta_min=0.000000
rprop_delta_max=50.000000
rprop_delta_zero=0.100000
cascade_output_stagnation_epochs=12
cascade_candidate_change_fraction=0.010000
cascade_candidate_stagnation_epochs=12
cascade_max_out_epochs=150
cascade_min_out_epochs=50
cascade_max_cand_epochs=150
cascade_min_cand_epochs=50
cascade_num_candidate_groups=2
bit_fail_limit=3.49999994039535522461e-01
cascade_candidate_limit=1.00000000000000000000e+03
cascade_weight_multiplier=4.00000005960464477539e-01
cascade_activation_functions_count=10
cascade_activation_functions=3 5 7 8 10 11 14 15 16 17 
cascade_activation_steepnesses_count=4
cascade_activation_steepnesses=2.50000000000000000000e-01 5.00000000000000000000e-01 7.50000000000000000000e-01 1.00000000000000000000e+00 
layer_sizes=4 7 5 
scale_included=0
neurons (num_inputs, activation_function, activation_steepness)=(0, 0, 0.00000000000000000000e+00) (0, 0, 0.00000000000000000000e+00) (0, 0, 0.00000000000000000000e+00) (0, 0, 0.00000000000000000000e+00) (4, 5, 5.00000000000000000000e-01) (4, 5, 5.00000000000000000000e-01) (4, 5, 5.00000000000000000000e-01) (4, 5, 5.00000000000000000000e-01) (4, 5, 5.00000000000000000000e-01) (4, 5, 5.00000000000000000000e-01) (0, 5, 0.00000000000000000000e+00) (7, 4, 5.00000000000000000000e-01) (7, 4, 5.00000000000000000000e-01) (7, 4, 5.00000000000000000000e-01) (7, 4, 5.00000000000000000000e-01) (0, 0, 0.00000000000000000000e+00) 
connections (connected_to_neuron, weight)=(0, -1.08317828178405761719e+00) (1, -3.03007316589355468750e+00) (2, 3.01885437965393066406e+00) (3, -7.75595456361770629883e-02) (0, -2.86472654342651367188e+00) (1, 1.50954732894897460938e+01) (2, -1.20927782058715820312e+01) (3, 7.73729443550109863281e-01) (0, 4.50436925888061523438e+00) (1, -1.15656876564025878906e+00) (2, -3.84388780593872070312e+00) (3, -1.11811590194702148438e+00) (0, 1.15233147144317626953e+00) (1, -1.60213255882263183594e+00) (2, -1.44101524353027343750e+00) (3, -9.32990372180938720703e-01) (0, 1.44360363769531250000e+03) (1, 1.47024621582031250000e+03) (2, 1.49293896484375000000e+03) (3, 1.35901354980468750000e+03) (0, 2.76395678520202636719e+00) (1, -5.45821046829223632812e+00) (2, 5.81326103210449218750e+00) (3, -1.90564543008804321289e-01) (4, 1.50000000000000000000e+03) (5, 9.42105773925781250000e+02) (6, 1.50000000000000000000e+03) (7, 1.50000000000000000000e+03) (8, 3.21144470214843750000e+02) (9, 1.50000000000000000000e+03) (10, 2.98668090820312500000e+02) (4, 6.63625640869140625000e+01) (5, 8.28909606933593750000e+01) (6, 5.53442459106445312500e+01) (7, 2.03738746643066406250e+01) (8, 3.43475222587585449219e-01) (9, 4.16720314025878906250e+01) (10, -4.28630781173706054688e+00) (4, -5.00870170593261718750e+01) (5, 9.87418556213378906250e+00) (6, -8.22918624877929687500e+01) (7, 6.18230514526367187500e+01) (8, -3.90150976181030273438e+00) (9, -2.07887020111083984375e+01) (10, -1.13015775680541992188e+01) (4, 1.50000000000000000000e+03) (5, 2.55496932983398437500e+02) (6, 6.90790481567382812500e+01) (7, 8.98299636840820312500e+01) (8, 2.24285259246826171875e+01) (9, 8.02134338378906250000e+02) (10, 1.98247241973876953125e+01) 
