FANN_FLO_2.1
num_layers=3
learning_rate=0.700000
connection_rate=1.000000
network_type=0
learning_momentum=0.000000
training_algorithm=2
train_error_function=1
train_stop_function=0
cascade_output_change_fraction=0.010000
quickprop_decay=-0.000100
quickprop_mu=1.750000
rprop_increase_factor=1.200000
rprop_decrease_factor=0.500000
rprop_delta_min=0.000000
rprop_delta_max=50.000000
rprop_delta_zero=0.100000
cascade_output_stagnation_epochs=12
cascade_candidate_change_fraction=0.010000
cascade_candidate_stagnation_epochs=12
cascade_max_out_epochs=150
cascade_min_out_epochs=50
cascade_max_cand_epochs=150
cascade_min_cand_epochs=50
cascade_num_candidate_groups=2
bit_fail_limit=3.49999994039535522461e-01
cascade_candidate_limit=1.00000000000000000000e+03
cascade_weight_multiplier=4.00000005960464477539e-01
cascade_activation_functions_count=10
cascade_activation_functions=3 5 7 8 10 11 14 15 16 17 
cascade_activation_steepnesses_count=4
cascade_activation_steepnesses=2.50000000000000000000e-01 5.00000000000000000000e-01 7.50000000000000000000e-01 1.00000000000000000000e+00 
layer_sizes=4 7 5 
scale_included=0
neurons (num_inputs, activation_function, activation_steepness)=(0, 0, 0.00000000000000000000e+00) (0, 0, 0.00000000000000000000e+00) (0, 0, 0.00000000000000000000e+00) (0, 0, 0.00000000000000000000e+00) (4, 5, 5.00000000000000000000e-01) (4, 5, 5.00000000000000000000e-01) (4, 5, 5.00000000000000000000e-01) (4, 5, 5.00000000000000000000e-01) (4, 5, 5.00000000000000000000e-01) (4, 5, 5.00000000000000000000e-01) (0, 5, 0.00000000000000000000e+00) (7, 4, 5.00000000000000000000e-01) (7, 4, 5.00000000000000000000e-01) (7, 4, 5.00000000000000000000e-01) (7, 4, 5.00000000000000000000e-01) (0, 0, 0.00000000000000000000e+00) 
connections (connected_to_neuron, weight)=(0, 4.56471300125122070312e+00) (1, -5.17382192611694335938e+00) (2, 8.34694385528564453125e-01) (3, 2.28758156299591064453e-01) (0, -6.49064683914184570312e+00) (1, 3.14825630187988281250e+00) (2, 2.75858592987060546875e+00) (3, 6.50960564613342285156e-01) (0, -1.42377996444702148438e+00) (1, 1.74327526092529296875e+01) (2, -1.32496643066406250000e+01) (3, -7.07145154476165771484e-01) (0, 4.11157751083374023438e+00) (1, 8.34774136543273925781e-01) (2, -4.20912551879882812500e+00) (3, 3.00488531589508056641e-01) (0, 1.92341908812522888184e-01) (1, 2.49306797981262207031e+00) (2, -2.12779358029365539551e-01) (3, -2.73319005966186523438e+00) (0, -1.08752357959747314453e+00) (1, -1.57303464412689208984e+00) (2, 5.27598440647125244141e-01) (3, -9.41161274909973144531e-01) (4, 9.01773254394531250000e+02) (5, 1.03910546875000000000e+03) (6, -6.01419799804687500000e+02) (7, 1.50000000000000000000e+03) (8, 1.50000000000000000000e+03) (9, 1.50000000000000000000e+03) (10, 1.09440380859375000000e+03) (4, 2.63507785797119140625e+01) (5, -3.99132423400878906250e+01) (6, 4.39272270202636718750e+01) (7, -5.90335426330566406250e+01) (8, -1.40524578094482421875e+01) (9, 7.43073415756225585938e+00) (10, -5.34476566314697265625e+00) (4, 7.49234342575073242188e+00) (5, 7.26316528320312500000e+01) (6, 7.39573860168457031250e+00) (7, 6.43731689453125000000e+01) (8, 7.30374240875244140625e+00) (9, 3.43702659606933593750e+01) (10, -1.11993961334228515625e+01) (4, 1.16774169921875000000e+03) (5, 1.50000000000000000000e+03) (6, -6.43572814941406250000e+02) (7, 5.16966613769531250000e+02) (8, 1.50000000000000000000e+03) (9, 1.50000000000000000000e+03) (10, 1.50000000000000000000e+03) 
