FANN_FLO_2.1
num_layers=3
learning_rate=0.700000
connection_rate=1.000000
network_type=0
learning_momentum=0.000000
training_algorithm=2
train_error_function=1
train_stop_function=0
cascade_output_change_fraction=0.010000
quickprop_decay=-0.000100
quickprop_mu=1.750000
rprop_increase_factor=1.200000
rprop_decrease_factor=0.500000
rprop_delta_min=0.000000
rprop_delta_max=50.000000
rprop_delta_zero=0.100000
cascade_output_stagnation_epochs=12
cascade_candidate_change_fraction=0.010000
cascade_candidate_stagnation_epochs=12
cascade_max_out_epochs=150
cascade_min_out_epochs=50
cascade_max_cand_epochs=150
cascade_min_cand_epochs=50
cascade_num_candidate_groups=2
bit_fail_limit=3.49999994039535522461e-01
cascade_candidate_limit=1.00000000000000000000e+03
cascade_weight_multiplier=4.00000005960464477539e-01
cascade_activation_functions_count=10
cascade_activation_functions=3 5 7 8 10 11 14 15 16 17 
cascade_activation_steepnesses_count=4
cascade_activation_steepnesses=2.50000000000000000000e-01 5.00000000000000000000e-01 7.50000000000000000000e-01 1.00000000000000000000e+00 
layer_sizes=4 5 5 
scale_included=0
neurons (num_inputs, activation_function, activation_steepness)=(0, 0, 0.00000000000000000000e+00) (0, 0, 0.00000000000000000000e+00) (0, 0, 0.00000000000000000000e+00) (0, 0, 0.00000000000000000000e+00) (4, 5, 5.00000000000000000000e-01) (4, 5, 5.00000000000000000000e-01) (4, 5, 5.00000000000000000000e-01) (4, 5, 5.00000000000000000000e-01) (0, 5, 0.00000000000000000000e+00) (5, 4, 5.00000000000000000000e-01) (5, 4, 5.00000000000000000000e-01) (5, 4, 5.00000000000000000000e-01) (5, 4, 5.00000000000000000000e-01) (0, 0, 0.00000000000000000000e+00) 
connections (connected_to_neuron, weight)=(0, -1.09623908996582031250e+01) (1, 1.99870719909667968750e+01) (2, 8.61901283264160156250e-01) (3, 1.88899770379066467285e-01) (0, 1.43066704273223876953e+00) (1, 2.55193591117858886719e+00) (2, -3.91118574142456054688e+00) (3, 2.84822881221771240234e-01) (0, -6.15563154220581054688e+00) (1, 3.06997013092041015625e+00) (2, 2.88654446601867675781e+00) (3, 1.15154516696929931641e+00) (0, -2.24583894014358520508e-01) (1, -1.74203348159790039062e+00) (2, 2.17680382728576660156e+00) (3, -2.46593856811523437500e+00) (4, -4.32258422851562500000e+02) (5, 1.12980859375000000000e+03) (6, 3.52724609375000000000e+01) (7, 1.50000000000000000000e+03) (8, 8.03847900390625000000e+02) (4, 8.47662734985351562500e+01) (5, -5.80657997131347656250e+01) (6, -1.18808593750000000000e+02) (7, 6.12787246704101562500e+00) (8, -1.21603670120239257812e+01) (4, -2.04015541076660156250e+01) (5, 7.86921463012695312500e+01) (6, 8.09179153442382812500e+01) (7, -8.58749771118164062500e+00) (8, -4.43634071350097656250e+01) (4, 4.10395904541015625000e+02) (5, -1.13406323242187500000e+03) (6, 8.69598632812500000000e+02) (7, 1.50000000000000000000e+03) (8, 4.32065826416015625000e+02) 
