FANN_FLO_2.1
num_layers=3
learning_rate=0.700000
connection_rate=1.000000
network_type=0
learning_momentum=0.000000
training_algorithm=2
train_error_function=1
train_stop_function=0
cascade_output_change_fraction=0.010000
quickprop_decay=-0.000100
quickprop_mu=1.750000
rprop_increase_factor=1.200000
rprop_decrease_factor=0.500000
rprop_delta_min=0.000000
rprop_delta_max=50.000000
rprop_delta_zero=0.100000
cascade_output_stagnation_epochs=12
cascade_candidate_change_fraction=0.010000
cascade_candidate_stagnation_epochs=12
cascade_max_out_epochs=150
cascade_min_out_epochs=50
cascade_max_cand_epochs=150
cascade_min_cand_epochs=50
cascade_num_candidate_groups=2
bit_fail_limit=3.49999994039535522461e-01
cascade_candidate_limit=1.00000000000000000000e+03
cascade_weight_multiplier=4.00000005960464477539e-01
cascade_activation_functions_count=10
cascade_activation_functions=3 5 7 8 10 11 14 15 16 17 
cascade_activation_steepnesses_count=4
cascade_activation_steepnesses=2.50000000000000000000e-01 5.00000000000000000000e-01 7.50000000000000000000e-01 1.00000000000000000000e+00 
layer_sizes=4 5 5 
scale_included=0
neurons (num_inputs, activation_function, activation_steepness)=(0, 0, 0.00000000000000000000e+00) (0, 0, 0.00000000000000000000e+00) (0, 0, 0.00000000000000000000e+00) (0, 0, 0.00000000000000000000e+00) (4, 5, 5.00000000000000000000e-01) (4, 5, 5.00000000000000000000e-01) (4, 5, 5.00000000000000000000e-01) (4, 5, 5.00000000000000000000e-01) (0, 5, 0.00000000000000000000e+00) (5, 4, 5.00000000000000000000e-01) (5, 4, 5.00000000000000000000e-01) (5, 4, 5.00000000000000000000e-01) (5, 4, 5.00000000000000000000e-01) (0, 0, 0.00000000000000000000e+00) 
connections (connected_to_neuron, weight)=(0, 4.96131324768066406250e+00) (1, -1.34142131805419921875e+01) (2, 1.83162355422973632812e+00) (3, 5.33619165420532226562e-01) (0, 5.33158481121063232422e-01) (1, 6.93897366523742675781e-01) (2, -1.09812164306640625000e+00) (3, -2.48315364122390747070e-01) (0, 5.54210472106933593750e+00) (1, -3.78235626220703125000e+00) (2, -1.86922919750213623047e+00) (3, -3.85769397020339965820e-01) (0, 3.70261192321777343750e+00) (1, 5.04004764556884765625e+00) (2, -8.75013637542724609375e+00) (3, 1.41617333889007568359e+00) (4, 1.50000000000000000000e+03) (5, 6.60184692382812500000e+02) (6, 1.35889147949218750000e+03) (7, 4.03455467224121093750e+01) (8, 6.75305328369140625000e+01) (4, -4.59142036437988281250e+01) (5, -3.73459587097167968750e+01) (6, 5.15894203186035156250e+01) (7, 3.18856626749038696289e-01) (8, -3.41577796936035156250e+01) (4, 1.11514205932617187500e+01) (5, -1.31090154647827148438e+01) (6, -4.47237663269042968750e+01) (7, 3.26000328063964843750e+01) (8, -2.40134754180908203125e+01) (4, 1.68516516685485839844e+00) (5, -2.31466003417968750000e+02) (6, -7.58256912231445312500e-01) (7, -3.22504920959472656250e+01) (8, 3.34221780300140380859e-01) 
